-1.075807800483048693e+00 -1.208008937139631200e+00 -1.212060686542745236e+00 -1.208192494986058074e+00 -1.207954506539278050e+00 -1.204101929922550829e+00 -1.208312299638926834e+00 1.140701762794388507e+00 1.134447692164562094e+00 1.134439567048371122e+00 1.134439555968003166e+00 1.141632195641657077e+00 1.138925665861405756e+00 1.104664155944304449e+00 1.104664249262060194e+00 1.132090252405210551e+00 1.132269002913917966e+00 1.132293696831304874e+00 1.100198749390717046e+00 1.097868970177634740e+00 1.097802608824558934e+00 1.000000000000000000e+00 1.000000000000000000e+00 1.000000000000000000e+00 1.000000000000000000e+00 1.000000000000000000e+00 1.000000000000000000e+00 1.000000000000000000e+00 1.000000000000000000e+00
1.051516460104918504e+00 1.141338614307559896e+00 1.145103203528607061e+00 1.141641226250053487e+00 1.141297262225663189e+00 1.137818607335782328e+00 1.141515315359124427e+00 -1.207316123037364131e+00 -1.199725012780766598e+00 -1.199732593734137431e+00 -1.199732578662664473e+00 -1.207750934345459770e+00 -1.204869406811470256e+00 -1.168245403872853361e+00 -1.168245392671538374e+00 -1.196073590153412969e+00 -1.196548879497031814e+00 -1.196516804468671591e+00 -1.152486556683816055e+00 -1.149978157258521261e+00 -1.150043168742820976e+00 -1.000000000000000000e+00 -1.000000000000000000e+00 -1.000000000000000000e+00 -1.000000000000000000e+00 1.000000000000000000e+00 1.000000000000000000e+00 1.000000000000000000e+00 1.000000000000000000e+00
1.051470846884033694e+00 1.141358387522224849e+00 1.144989913402445936e+00 1.141529155536036733e+00 1.141316936199880949e+00 1.137818618836564655e+00 1.141515242018237508e+00 -1.141503604416486573e+00 -1.137312443201615286e+00 -1.137432573300292349e+00 -1.137432556536408956e+00 -1.144809627459865808e+00 -1.142022955128737305e+00 -1.168210274734720500e+00 -1.168210263512356351e+00 1.132437542356774074e+00 1.132619235689574122e+00 1.132587747066289285e+00 1.100477106871445843e+00 1.098144718835946776e+00 1.098211026124253475e+00 1.000000000000000000e+00 1.000000000000000000e+00 1.000000000000000000e+00 1.000000000000000000e+00 -1.000000000000000000e+00 -1.000000000000000000e+00 -1.000000000000000000e+00 -1.000000000000000000e+00
-1.053302815362264777e+00 -1.147774431736063416e+00 -1.145348410990455035e+00 1.141531422746948188e+00 1.141552536869700374e+00 1.144029525997545704e+00 1.141922342268851143e+00 -1.147019405775775880e+00 -1.135035003239596163e+00 -1.140650357014164173e+00 -1.140650360521101137e+00 1.141994781738754128e+00 1.145012893861245828e+00 1.110696129512786401e+00 1.110696072429397940e+00 -1.135299979320315344e+00 -1.141892555514059771e+00 -1.141860676191351232e+00 -1.152448992574776510e+00 1.102759808838200906e+00 1.102826198866730945e+00 1.000000000000000000e+00 1.000000000000000000e+00 1.000000000000000000e+00 1.000000000000000000e+00 -1.000000000000000000e+00 -1.000000000000000000e+00 -1.000000000000000000e+00 -1.000000000000000000e+00
-1.053681831642893085e+00 1.141411159203736814e+00 1.145226059111787320e+00 -1.141705991454794455e+00 -1.141674069627613086e+00 1.138097868525978162e+00 1.141747602400260631e+00 -1.141196152003451258e+00 1.134807826397912223e+00 1.134830388238566412e+00 1.134830387930796380e+00 -1.142219142720516167e+00 -1.139295884934917291e+00 1.105139829473197111e+00 1.105139730913878182e+00 -1.135043810755885785e+00 -1.135356466578890888e+00 -1.135324952413139687e+00 1.100477734065812951e+00 -1.149942045077393393e+00 -1.150008579628800875e+00 1.000000000000000000e+00 1.000000000000000000e+00 1.000000000000000000e+00 1.000000000000000000e+00 -1.000000000000000000e+00 -1.000000000000000000e+00 -1.000000000000000000e+00 -1.000000000000000000e+00
1.051525192939630093e+00 -1.141760492245963432e+00 1.145264056804730535e+00 -1.147776402988371025e+00 1.147559657062801719e+00 -1.143939327813015661e+00 1.147851783958143024e+00 1.141096721967729266e+00 -1.140651405810591434e+00 -1.134927199035115297e+00 1.140648967482851273e+00 -1.142168171787176778e+00 1.139413305412713351e+00 -1.105026841082340283e+00 1.105188308408264319e+00 -1.138518659497121943e+00 -1.132750656973450898e+00 1.138726014752300397e+00 1.100358637383757499e+00 -1.098019521962066536e+00 1.098213361916153818e+00 -1.000000000000000000e+00 -1.000000000000000000e+00 1.000000000000000000e+00 1.000000000000000000e+00 -1.000000000000000000e+00 -1.000000000000000000e+00 1.000000000000000000e+00 1.000000000000000000e+00
-1.033456815212679958e+00 -1.141630325060088325e+00 1.145393664946429801e+00 1.141808168776514698e+00 1.141660812009771764e+00 -1.137995276840694236e+00 -1.141871823335812275e+00 1.141096732866020202e+00 -1.140651405928401863e+00 1.140648979061998913e+00 -1.134927187811785032e+00 -1.142120121171171121e+00 1.139413261835289237e+00 1.105188364989946104e+00 -1.105026784507596282e+00 -1.138518617213517103e+00 1.138757707561078636e+00 -1.132719169179254415e+00 1.100358632587099983e+00 1.098147021108708099e+00 -1.098085862415314695e+00 -1.000000000000000000e+00 1.000000000000000000e+00 -1.000000000000000000e+00 1.000000000000000000e+00 -1.000000000000000000e+00 1.000000000000000000e+00 -1.000000000000000000e+00 1.000000000000000000e+00
